digraph Tree {
node [shape=box] ;
0 [label="X[2] <= 2.5\nmse = 77122.9193\nsamples = 160761\nvalue = 105.8134"] ;
1 [label="X[10] <= 0.5289\nmse = 9877.6507\nsamples = 114169\nvalue = 23.9643"] ;
0 -> 1 [labeldistance=2.5, labelangle=45, headlabel="True"] ;
2 [label="X[2] <= 1.5\nmse = 6438.2874\nsamples = 110885\nvalue = 17.3161"] ;
1 -> 2 ;
3 [label="X[26] <= 3.9952\nmse = 667.7081\nsamples = 87012\nvalue = 2.6886"] ;
2 -> 3 ;
4 [label="X[26] <= 0.465\nmse = 577.4886\nsamples = 87011\nvalue = 2.6564"] ;
3 -> 4 ;
5 [label="mse = 192.6502\nsamples = 86791\nvalue = 2.3706"] ;
4 -> 5 ;
6 [label="mse = 139657.6206\nsamples = 220\nvalue = 115.3867"] ;
4 -> 6 ;
7 [label="mse = 0.0\nsamples = 1\nvalue = 2804.5928"] ;
3 -> 7 ;
8 [label="X[27] <= 0.6824\nmse = 23848.5464\nsamples = 23873\nvalue = 70.6304"] ;
2 -> 8 ;
9 [label="X[47] <= 0.7857\nmse = 19674.5639\nsamples = 23864\nvalue = 69.4469"] ;
8 -> 9 ;
10 [label="mse = 25756.5053\nsamples = 13187\nvalue = 95.4498"] ;
9 -> 10 ;
11 [label="mse = 10296.3332\nsamples = 10677\nvalue = 37.3312"] ;
9 -> 11 ;
12 [label="X[46] <= 0.2745\nmse = 1239673.5347\nsamples = 9\nvalue = 3208.7839"] ;
8 -> 12 ;
13 [label="mse = 0.0\nsamples = 1\nvalue = 63.4944"] ;
12 -> 13 ;
14 [label="mse = 3451.1861\nsamples = 8\nvalue = 3601.9451"] ;
12 -> 14 ;
15 [label="X[0] <= 0.3469\nmse = 74127.1178\nsamples = 3284\nvalue = 248.4394"] ;
1 -> 15 ;
16 [label="X[20] <= 0.1048\nmse = 71810.9007\nsamples = 19\nvalue = 3448.5062"] ;
15 -> 16 ;
17 [label="X[41] <= 22.5\nmse = 25968.8289\nsamples = 6\nvalue = 3172.498"] ;
16 -> 17 ;
18 [label="mse = 3690.696\nsamples = 2\nvalue = 2954.0497"] ;
17 -> 18 ;
19 [label="mse = 1318.1294\nsamples = 4\nvalue = 3281.7222"] ;
17 -> 19 ;
20 [label="X[32] <= 0.0572\nmse = 41580.7333\nsamples = 13\nvalue = 3575.8946"] ;
16 -> 20 ;
21 [label="mse = 23799.1577\nsamples = 9\nvalue = 3680.1724"] ;
20 -> 21 ;
22 [label="mse = 2074.3032\nsamples = 4\nvalue = 3341.2698"] ;
20 -> 22 ;
23 [label="X[10] <= 2.8477\nmse = 14201.7351\nsamples = 3265\nvalue = 229.8172"] ;
15 -> 23 ;
24 [label="X[45] <= 0.5245\nmse = 10300.4461\nsamples = 3264\nvalue = 228.7235"] ;
23 -> 24 ;
25 [label="mse = 8533.007\nsamples = 3092\nvalue = 237.1182"] ;
24 -> 25 ;
26 [label="mse = 18032.5642\nsamples = 172\nvalue = 77.8135"] ;
24 -> 26 ;
27 [label="mse = -0.0\nsamples = 1\nvalue = 3799.7058"] ;
23 -> 27 ;
28 [label="X[47] <= 0.4964\nmse = 185259.1836\nsamples = 46592\nvalue = 306.3765"] ;
0 -> 28 [labeldistance=2.5, labelangle=-45, headlabel="False"] ;
29 [label="X[26] <= 3.6687\nmse = 229082.6288\nsamples = 26166\nvalue = 438.47"] ;
28 -> 29 ;
30 [label="X[2] <= 4.5\nmse = 197755.2685\nsamples = 26016\nvalue = 427.7556"] ;
29 -> 30 ;
31 [label="X[45] <= 0.0568\nmse = 116310.5473\nsamples = 16917\nvalue = 345.6869"] ;
30 -> 31 ;
32 [label="mse = 52168.4676\nsamples = 13130\nvalue = 305.5393"] ;
31 -> 32 ;
33 [label="mse = 313734.8961\nsamples = 3787\nvalue = 484.8839"] ;
31 -> 33 ;
34 [label="X[18] <= 0.2022\nmse = 313374.5462\nsamples = 9099\nvalue = 580.339"] ;
30 -> 34 ;
35 [label="mse = 101966.7967\nsamples = 5751\nvalue = 496.7189"] ;
34 -> 35 ;
36 [label="mse = 643875.7315\nsamples = 3348\nvalue = 723.9766"] ;
34 -> 36 ;
37 [label="X[43] <= 0.0836\nmse = 2189322.3304\nsamples = 150\nvalue = 2296.7668"] ;
29 -> 37 ;
38 [label="X[34] <= 4.58400856198e+18\nmse = 48653.3878\nsamples = 84\nvalue = 3541.6384"] ;
37 -> 38 ;
39 [label="mse = 46412.9456\nsamples = 27\nvalue = 3367.8889"] ;
38 -> 39 ;
40 [label="mse = 28640.9695\nsamples = 57\nvalue = 3623.9408"] ;
38 -> 40 ;
41 [label="X[45] <= 0.0325\nmse = 431191.4155\nsamples = 66\nvalue = 712.3848"] ;
37 -> 41 ;
42 [label="mse = 177011.805\nsamples = 62\nvalue = 610.1063"] ;
41 -> 42 ;
43 [label="mse = 1695601.4211\nsamples = 4\nvalue = 2297.7018"] ;
41 -> 43 ;
44 [label="X[47] <= 0.6855\nmse = 78135.4819\nsamples = 20426\nvalue = 137.163"] ;
28 -> 44 ;
45 [label="X[46] <= 0.3408\nmse = 115507.7941\nsamples = 10118\nvalue = 217.081"] ;
44 -> 45 ;
46 [label="X[49] <= 0.3407\nmse = 52776.8156\nsamples = 5366\nvalue = 147.5209"] ;
45 -> 46 ;
47 [label="mse = 71192.8797\nsamples = 2828\nvalue = 261.6734"] ;
46 -> 47 ;
48 [label="mse = 1557.9327\nsamples = 2538\nvalue = 20.3249"] ;
46 -> 48 ;
49 [label="X[26] <= 1.7908\nmse = 174710.5649\nsamples = 4752\nvalue = 295.629"] ;
45 -> 49 ;
50 [label="mse = 150659.4463\nsamples = 4717\nvalue = 288.0333"] ;
49 -> 50 ;
51 [label="mse = 2360388.6845\nsamples = 35\nvalue = 1319.3232"] ;
49 -> 51 ;
52 [label="X[46] <= 0.3351\nmse = 29029.2297\nsamples = 10308\nvalue = 58.7179"] ;
44 -> 52 ;
53 [label="X[49] <= 0.3347\nmse = 9910.1135\nsamples = 7647\nvalue = 34.2715"] ;
52 -> 53 ;
54 [label="mse = 26802.3571\nsamples = 2379\nvalue = 83.8163"] ;
53 -> 54 ;
55 [label="mse = 672.5404\nsamples = 5268\nvalue = 11.8973"] ;
53 -> 55 ;
56 [label="X[51] <= 0.2591\nmse = 77319.602\nsamples = 2661\nvalue = 128.9704"] ;
52 -> 56 ;
57 [label="mse = 119055.2768\nsamples = 544\nvalue = 231.1983"] ;
56 -> 57 ;
58 [label="mse = 63219.3715\nsamples = 2117\nvalue = 102.7012"] ;
56 -> 58 ;
}